<?xml version="1.0"?>
<opencv_storage>
<cascade>
  <stageType>BOOST</stageType>
  <featureType>LBP</featureType>
  <height>38</height>
  <width>24</width>
  <stageParams>
    <boostType>GAB</boostType>
    <minHitRate>9.9500000476837158e-001</minHitRate>
    <maxFalseAlarm>2.0000000298023224e-001</maxFalseAlarm>
    <weightTrimRate>9.4999999999999996e-001</weightTrimRate>
    <maxDepth>1</maxDepth>
    <maxWeakCount>100</maxWeakCount></stageParams>
  <featureParams>
    <maxCatCount>256</maxCatCount>
    <featSize>1</featSize></featureParams>
  <stageNum>12</stageNum>
  <stages>
    <!-- stage 0 -->
    <_>
      <maxWeakCount>2</maxWeakCount>
      <stageThreshold>-2.0001254975795746e-002</stageThreshold>
      <weakClassifiers>
        <_>
          <internalNodes>
            0 -1 7 -611594017 -753709440 -536854505 -687101172
            -2004178742 -936673269 -269555493 -70519841</internalNodes>
          <leafValues>
            -9.4719469547271729e-001 9.5951414108276367e-001</leafValues></_>
        <_>
          <internalNodes>
            0 -1 28 -74451969 -620556269 82139 1476612371 -2012575096
            -1903556415 -2147434293 -609560068</internalNodes>
          <leafValues>
            -9.3974626064300537e-001 9.2719346284866333e-001</leafValues></_></weakClassifiers></_>
    <!-- stage 1 -->
    <_>
      <maxWeakCount>2</maxWeakCount>
      <stageThreshold>-1.2819182872772217e-001</stageThreshold>
      <weakClassifiers>
        <_>
          <internalNodes>
            0 -1 5 -2236929 -82624127 65563 -1660485597 -930158353
            -99891030 -536293633 -341055493</internalNodes>
          <leafValues>
            -9.2125982046127319e-001 8.7910646200180054e-001</leafValues></_>
        <_>
          <internalNodes>
            0 -1 2 -14954017 -217382639 -1920926474 -7154480 -930365221
            -876902375 -914302465 -1116162</internalNodes>
          <leafValues>
            -9.3301260471343994e-001 7.9306799173355103e-001</leafValues></_></weakClassifiers></_>
    <!-- stage 2 -->
    <_>
      <maxWeakCount>2</maxWeakCount>
      <stageThreshold>-7.6532647013664246e-002</stageThreshold>
      <weakClassifiers>
        <_>
          <internalNodes>
            0 -1 12 1901130749 -539511307 -753690149 -1155848929
            -519980609 -36632183 -1949726021 -1079048049</internalNodes>
          <leafValues>
            -9.3665158748626709e-001 8.8511747121810913e-001</leafValues></_>
        <_>
          <internalNodes>
            0 -1 21 -210396677 -103317061 2072474575 -12648161 12624895
            -239009661 -1421694037 -23873</internalNodes>
          <leafValues>
            -9.0546679496765137e-001 8.6011892557144165e-001</leafValues></_></weakClassifiers></_>
    <!-- stage 3 -->
    <_>
      <maxWeakCount>3</maxWeakCount>
      <stageThreshold>-1.0920487642288208e+000</stageThreshold>
      <weakClassifiers>
        <_>
          <internalNodes>
            0 -1 27 -444599425 -2101761 -950665899 -6293505 -538723393
            -268596789 -4218885 -1917875729</internalNodes>
          <leafValues>
            -9.2865633964538574e-001 7.7997529506683350e-001</leafValues></_>
        <_>
          <internalNodes>
            0 -1 34 -11209996 1572295108 -117435467 -1056783 -89067780
            -1064724 -68567121 -5121</internalNodes>
          <leafValues>
            -9.8172301054000854e-001 7.1341937780380249e-001</leafValues></_>
        <_>
          <internalNodes>
            0 -1 8 -235154433 -2128160443 -564739470 -1367150958
            -873205794 -15072748 -340313489 -11521</internalNodes>
          <leafValues>
            -8.9030104875564575e-001 7.8983539342880249e-001</leafValues></_></weakClassifiers></_>
    <!-- stage 4 -->
    <_>
      <maxWeakCount>4</maxWeakCount>
      <stageThreshold>-4.8483151197433472e-001</stageThreshold>
      <weakClassifiers>
        <_>
          <internalNodes>
            0 -1 22 -547882369 -10521641 -642656837 -14697185 -869619201
            -2114147 -335695923 -12604997</internalNodes>
          <leafValues>
            -8.8461536169052124e-001 7.1638143062591553e-001</leafValues></_>
        <_>
          <internalNodes>
            0 -1 40 -250555812 -539683883 -545023043 -604044835
            -80691458 -73889619 -83352075 -480264</internalNodes>
          <leafValues>
            -9.4287574291229248e-001 6.4567947387695313e-001</leafValues></_>
        <_>
          <internalNodes>
            0 -1 9 -679608321 -12356107 -641477153 -1465087945
            -626787393 -114167485 -14757461 -269487105</internalNodes>
          <leafValues>
            -8.8485759496688843e-001 6.3806021213531494e-001</leafValues></_>
        <_>
          <internalNodes>
            0 -1 26 -235014181 -536913957 2136395487 -436227 -238436391
            -13916138 -545153089 -8185025</internalNodes>
          <leafValues>
            -8.8395583629608154e-001 6.5159410238265991e-001</leafValues></_></weakClassifiers></_>
    <!-- stage 5 -->
    <_>
      <maxWeakCount>3</maxWeakCount>
      <stageThreshold>1.6308237612247467e-001</stageThreshold>
      <weakClassifiers>
        <_>
          <internalNodes>
            0 -1 1 -9439361 -366554786 -1039949499 -319893001
            -2117872097 -104392813 -444100201 -285278769</internalNodes>
          <leafValues>
            -9.5231789350509644e-001 6.3575416803359985e-001</leafValues></_>
        <_>
          <internalNodes>
            0 -1 6 -1430002689 -973613123 -237113697 -1482299678
            -2093776945 -1595489781 -218432801 -1413</internalNodes>
          <leafValues>
            -9.1285288333892822e-001 5.5857044458389282e-001</leafValues></_>
        <_>
          <internalNodes>
            0 -1 18 -67110964 -1977027783 -482974932 -1478970496
            -713300200 1401020800 -633086978 -1057</internalNodes>
          <leafValues>
            -9.0319907665252686e-001 5.5682981014251709e-001</leafValues></_></weakClassifiers></_>
    <!-- stage 6 -->
    <_>
      <maxWeakCount>5</maxWeakCount>
      <stageThreshold>-1.4655137062072754e-001</stageThreshold>
      <weakClassifiers>
        <_>
          <internalNodes>
            0 -1 13 1868919261 1466161887 -8393765 -46256865 -1086981285
            -1811901451 -806393870 -4099</internalNodes>
          <leafValues>
            -8.2682925462722778e-001 6.3614457845687866e-001</leafValues></_>
        <_>
          <internalNodes>
            0 -1 36 832015839 -1118467307 -1098503297 -606107427
            -1819744009 -34427751 -7819265 -35071587</internalNodes>
          <leafValues>
            -8.7671381235122681e-001 5.2297919988632202e-001</leafValues></_>
        <_>
          <internalNodes>
            0 -1 39 486584504 -608232998 -1157292049 -1089002953
            -1692574977 -618987065 -1711064097 1538219823</internalNodes>
          <leafValues>
            -9.0851122140884399e-001 4.9702385067939758e-001</leafValues></_>
        <_>
          <internalNodes>
            0 -1 19 -143149057 -159919785 948143693 -1750647049
            -1429864333 1254162562 -2129788673 30476639</internalNodes>
          <leafValues>
            -8.6651253700256348e-001 5.1743245124816895e-001</leafValues></_>
        <_>
          <internalNodes>
            0 -1 0 -2092177465 -535584756 541548801 -483311165
            1770254835 -637466079 -1031307133 -1054009</internalNodes>
          <leafValues>
            -8.3305364847183228e-001 5.4253542423248291e-001</leafValues></_></weakClassifiers></_>
    <!-- stage 7 -->
    <_>
      <maxWeakCount>4</maxWeakCount>
      <stageThreshold>-4.5070809125900269e-001</stageThreshold>
      <weakClassifiers>
        <_>
          <internalNodes>
            0 -1 11 -382086089 -1544169617 808973692 -239930377
            -183239753 -256378714 -744499209 -139669553</internalNodes>
          <leafValues>
            -8.8571429252624512e-001 5.4754096269607544e-001</leafValues></_>
        <_>
          <internalNodes>
            0 -1 20 -145597481 351791575 -156071585 -77622249 -108364426
            -1283564135 -506739875 -36066307</internalNodes>
          <leafValues>
            -7.4129903316497803e-001 5.5845659971237183e-001</leafValues></_>
        <_>
          <internalNodes>
            0 -1 29 -1777034500 -742444795 1762203023 -1088715233
            -1282737474 -1415903059 -1146209291 -71325015</internalNodes>
          <leafValues>
            -8.4489083290100098e-001 5.1169079542160034e-001</leafValues></_>
        <_>
          <internalNodes>
            0 -1 23 -548407297 -4259841 2142074657 -7733367 -539029027
            -32769 -15919331 -14811137</internalNodes>
          <leafValues>
            -6.3514119386672974e-001 7.6452672481536865e-001</leafValues></_></weakClassifiers></_>
    <!-- stage 8 -->
    <_>
      <maxWeakCount>5</maxWeakCount>
      <stageThreshold>-1.0362312793731689e+000</stageThreshold>
      <weakClassifiers>
        <_>
          <internalNodes>
            0 -1 4 -747186242 -766405797 1364382419 -44116194
            -1306439273 83886081 -1286397695 -100666530</internalNodes>
          <leafValues>
            -8.6350977420806885e-001 5.0429183244705200e-001</leafValues></_>
        <_>
          <internalNodes>
            0 -1 41 -229117233 -1794981101 -1567465985 1644231043
            -2088132597 -829889263 -2080198726 -1580936463</internalNodes>
          <leafValues>
            -6.9727700948715210e-001 6.7126291990280151e-001</leafValues></_>
        <_>
          <internalNodes>
            0 -1 10 1499695361 1209864517 -1222937761 -1322779827
            -1542987081 -86809861 -460196589 -794571805</internalNodes>
          <leafValues>
            -8.3764004707336426e-001 5.3753370046615601e-001</leafValues></_>
        <_>
          <internalNodes>
            0 -1 31 -211552261 -216808557 1224803267 1527861453
            1082378570 1147142145 13697099 1594313430</internalNodes>
          <leafValues>
            -7.5038433074951172e-001 6.0831946134567261e-001</leafValues></_>
        <_>
          <internalNodes>
            0 -1 38 1345450179 -412893279 1576927229 -655363 -16908289
            -1 -16973825 -679673857</internalNodes>
          <leafValues>
            -6.3039547204971313e-001 7.3292380571365356e-001</leafValues></_></weakClassifiers></_>
    <!-- stage 9 -->
    <_>
      <maxWeakCount>5</maxWeakCount>
      <stageThreshold>9.9920123815536499e-002</stageThreshold>
      <weakClassifiers>
        <_>
          <internalNodes>
            0 -1 33 588989879 99558449 545720897 -1006665457 -58889869
            -1771345870 -5365507 -5328579</internalNodes>
          <leafValues>
            -7.7805799245834351e-001 5.4492413997650146e-001</leafValues></_>
        <_>
          <internalNodes>
            0 -1 46 -586098546 -413585016 -1052208687 -16777067
            -796349750 -534216448 671135279 2099980810</internalNodes>
          <leafValues>
            -8.0070120096206665e-001 5.3022336959838867e-001</leafValues></_>
        <_>
          <internalNodes>
            0 -1 14 -677318242 -1258003962 388237203 -681548 1209045210
            -1874327407 782930922 -52120588</internalNodes>
          <leafValues>
            -9.0834730863571167e-001 4.4701582193374634e-001</leafValues></_>
        <_>
          <internalNodes>
            0 -1 42 -1022373685 -762474432 -1878867958 -376716393
            -1610024950 33751362 1393090698 1466163963</internalNodes>
          <leafValues>
            -7.4194598197937012e-001 6.2334454059600830e-001</leafValues></_>
        <_>
          <internalNodes>
            0 -1 43 -1856380003 1229982210 33587208 1758925267
            -1600345720 140534336 -754284006 -18121757</internalNodes>
          <leafValues>
            -6.8029719591140747e-001 6.8942111730575562e-001</leafValues></_></weakClassifiers></_>
    <!-- stage 10 -->
    <_>
      <maxWeakCount>6</maxWeakCount>
      <stageThreshold>-3.6746689677238464e-001</stageThreshold>
      <weakClassifiers>
        <_>
          <internalNodes>
            0 -1 3 1602425751 -652913915 -1593568227 786478195 70985
            -244842479 -242040453 -4485087</internalNodes>
          <leafValues>
            -8.4324324131011963e-001 5.2087914943695068e-001</leafValues></_>
        <_>
          <internalNodes>
            0 -1 24 -35140877 -2126097 1366138631 1341080647 -1355612173
            -13369345 1295251409 -42497</internalNodes>
          <leafValues>
            -6.6328650712966919e-001 7.0788693428039551e-001</leafValues></_>
        <_>
          <internalNodes>
            0 -1 32 -1591351777 -871268305 -2008940405 -783335389
            -2019520356 -1574269303 -923883393 -4275265</internalNodes>
          <leafValues>
            -6.6061711311340332e-001 7.0629215240478516e-001</leafValues></_>
        <_>
          <internalNodes>
            0 -1 16 -153230817 1979818899 -2141937053 658704526
            -264165245 -664730613 -1068138489 -537304709</internalNodes>
          <leafValues>
            -6.2895619869232178e-001 7.1378177404403687e-001</leafValues></_>
        <_>
          <internalNodes>
            0 -1 37 -804235824 1896546618 815825235 -217476944 537957067
            -938983237 393614 1537984670</internalNodes>
          <leafValues>
            -8.3453083038330078e-001 5.7832151651382446e-001</leafValues></_>
        <_>
          <internalNodes>
            0 -1 35 1550899038 -1324662705 1902223573 -996048699
            -2130653110 -1476198288 -26769163 -231892705</internalNodes>
          <leafValues>
            -8.1486678123474121e-001 5.7184338569641113e-001</leafValues></_></weakClassifiers></_>
    <!-- stage 11 -->
    <_>
      <maxWeakCount>6</maxWeakCount>
      <stageThreshold>-2.8233548998832703e-001</stageThreshold>
      <weakClassifiers>
        <_>
          <internalNodes>
            0 -1 25 -916758537 -1987886449 -1323843346 -224821181
            1637290135 -398749689 2035991870 -257363849</internalNodes>
          <leafValues>
            -7.5853657722473145e-001 5.6867468357086182e-001</leafValues></_>
        <_>
          <internalNodes>
            0 -1 30 60235487 1178743071 -284568268 -1422609610
            1533022467 1930629185 -844308046 -9166727</internalNodes>
          <leafValues>
            -7.3859637975692749e-001 6.1769282817840576e-001</leafValues></_>
        <_>
          <internalNodes>
            0 -1 15 1642127447 -250637537 93390305 -811614937 -708570810
            -988741568 1769713696 -100707757</internalNodes>
          <leafValues>
            -7.0252907276153564e-001 6.5698635578155518e-001</leafValues></_>
        <_>
          <internalNodes>
            0 -1 44 -1331961329 -167831537 896583727 -1149142207
            -738534071 -1094150102 -1190989160 -13582136</internalNodes>
          <leafValues>
            -6.5276110172271729e-001 6.7991805076599121e-001</leafValues></_>
        <_>
          <internalNodes>
            0 -1 17 1748903441 17105177 25250977 -778469373 -2080374621
            -2122317821 -2007981939 -549346685</internalNodes>
          <leafValues>
            -6.7611616849899292e-001 7.2870820760726929e-001</leafValues></_>
        <_>
          <internalNodes>
            0 -1 45 76186287 -1376714687 539100731 587202567 -2084863121
            1342218283 -759127960 -860558691</internalNodes>
          <leafValues>
            -7.6997590065002441e-001 6.5016084909439087e-001</leafValues></_></weakClassifiers></_></stages>
  <features>
    <_>
      <rect>
        0 1 6 6</rect></_>
    <_>
      <rect>
        0 9 4 9</rect></_>
    <_>
      <rect>
        0 10 8 9</rect></_>
    <_>
      <rect>
        0 13 5 5</rect></_>
    <_>
      <rect>
        0 14 7 8</rect></_>
    <_>
      <rect>
        0 14 8 4</rect></_>
    <_>
      <rect>
        0 15 7 3</rect></_>
    <_>
      <rect>
        0 17 8 3</rect></_>
    <_>
      <rect>
        1 11 4 6</rect></_>
    <_>
      <rect>
        1 14 6 5</rect></_>
    <_>
      <rect>
        3 15 6 3</rect></_>
    <_>
      <rect>
        3 15 7 3</rect></_>
    <_>
      <rect>
        3 16 7 3</rect></_>
    <_>
      <rect>
        3 17 6 3</rect></_>
    <_>
      <rect>
        3 21 6 5</rect></_>
    <_>
      <rect>
        4 17 5 4</rect></_>
    <_>
      <rect>
        5 4 4 9</rect></_>
    <_>
      <rect>
        5 9 6 4</rect></_>
    <_>
      <rect>
        5 10 2 5</rect></_>
    <_>
      <rect>
        5 11 4 5</rect></_>
    <_>
      <rect>
        5 16 5 4</rect></_>
    <_>
      <rect>
        5 17 5 3</rect></_>
    <_>
      <rect>
        5 17 6 3</rect></_>
    <_>
      <rect>
        6 4 6 9</rect></_>
    <_>
      <rect>
        6 5 6 5</rect></_>
    <_>
      <rect>
        6 11 4 8</rect></_>
    <_>
      <rect>
        6 14 6 4</rect></_>
    <_>
      <rect>
        6 15 4 3</rect></_>
    <_>
      <rect>
        6 16 4 2</rect></_>
    <_>
      <rect>
        6 17 6 1</rect></_>
    <_>
      <rect>
        6 18 4 2</rect></_>
    <_>
      <rect>
        7 8 5 4</rect></_>
    <_>
      <rect>
        7 15 2 2</rect></_>
    <_>
      <rect>
        7 16 3 2</rect></_>
    <_>
      <rect>
        8 15 3 2</rect></_>
    <_>
      <rect>
        8 15 4 5</rect></_>
    <_>
      <rect>
        8 16 3 2</rect></_>
    <_>
      <rect>
        8 16 4 1</rect></_>
    <_>
      <rect>
        8 20 3 3</rect></_>
    <_>
      <rect>
        9 16 2 1</rect></_>
    <_>
      <rect>
        9 17 3 1</rect></_>
    <_>
      <rect>
        9 21 4 2</rect></_>
    <_>
      <rect>
        10 14 1 1</rect></_>
    <_>
      <rect>
        10 14 1 3</rect></_>
    <_>
      <rect>
        10 20 3 2</rect></_>
    <_>
      <rect>
        10 21 3 3</rect></_>
    <_>
      <rect>
        11 21 1 1</rect></_></features></cascade>
</opencv_storage>
