<?xml version="1.0"?>
<opencv_storage>
<cascade>
  <stageType>BOOST</stageType>
  <featureType>HAAR</featureType>
  <height>24</height>
  <width>24</width>
  <stageParams>
    <boostType>GAB</boostType>
    <minHitRate>9.9900001287460327e-001</minHitRate>
    <maxFalseAlarm>5.0000000000000000e-001</maxFalseAlarm>
    <weightTrimRate>9.4999999999999996e-001</weightTrimRate>
    <maxDepth>1</maxDepth>
    <maxWeakCount>100</maxWeakCount></stageParams>
  <featureParams>
    <maxCatCount>0</maxCatCount>
    <featSize>1</featSize>
    <mode>BASIC</mode></featureParams>
  <stageNum>20</stageNum>
  <stages>
    <!-- stage 0 -->
    <_>
      <maxWeakCount>100</maxWeakCount>
      <stageThreshold>-3.5036703944206238e-001</stageThreshold>
      <weakClassifiers>
        <_>
          <internalNodes>
            0 -1 52 4.6982709318399429e-002</internalNodes>
          <leafValues>
            3.6115568876266479e-001 9.7402596473693848e-001</leafValues></_>
        <_>
          <internalNodes>
            0 -1 54 8.6879730224609375e-003</internalNodes>
          <leafValues>
            -9.0180993080139160e-002 8.6299115419387817e-001</leafValues></_>
        <_>
          <internalNodes>
            0 -1 52 2.3977398872375488e-002</internalNodes>
          <leafValues>
            6.3492270419374108e-004 1.9315925240516663e-001</leafValues></_>
        <_>
          <internalNodes>
            0 -1 52 2.3445956408977509e-002</internalNodes>
          <leafValues>
            -1.7423417419195175e-002 8.0359987914562225e-002</leafValues></_>
        <_>
          <internalNodes>
            0 -1 52 2.3085009306669235e-002</internalNodes>
          <leafValues>
            -1.0067320428788662e-002 4.0714193135499954e-002</leafValues></_>
        <_>
          <internalNodes>
            0 -1 52 1.8608883023262024e-002</internalNodes>
          <leafValues>
            2.5390923023223877e-002 -5.0378289073705673e-002</leafValues></_>
        <_>
          <internalNodes>
            0 -1 52 2.1172191947698593e-002</internalNodes>
          <leafValues>
            -6.1467308551073074e-003 9.6668049693107605e-002</leafValues></_>
        <_>
          <internalNodes>
            0 -1 54 4.5273639261722565e-003</internalNodes>
          <leafValues>
            -7.6188035309314728e-002 4.1087427735328674e-001</leafValues></_>
        <_>
          <internalNodes>
            0 -1 52 2.0221510902047157e-002</internalNodes>
          <leafValues>
            3.1536037568002939e-003 2.0788589492440224e-002</leafValues></_>
        <_>
          <internalNodes>
            0 -1 54 3.4295334480702877e-003</internalNodes>
          <leafValues>
            -1.2869629077613354e-002 -1.7682018224149942e-003</leafValues></_>
        <_>
          <internalNodes>
            0 -1 54 3.3392664045095444e-003</internalNodes>
          <leafValues>
            -5.6306049227714539e-003 1.7255425453186035e-002</leafValues></_>
        <_>
          <internalNodes>
            0 -1 52 2.0189587026834488e-002</internalNodes>
          <leafValues>
            1.8100650981068611e-002 -6.9014683365821838e-002</leafValues></_>
        <_>
          <internalNodes>
            0 -1 54 3.3893426880240440e-003</internalNodes>
          <leafValues>
            -4.4983830302953720e-003 -2.7947323396801949e-003</leafValues></_>
        <_>
          <internalNodes>
            0 -1 54 3.3893426880240440e-003</internalNodes>
          <leafValues>
            -1.2575130676850677e-003 7.5074611231684685e-003</leafValues></_>
        <_>
          <internalNodes>
            0 -1 54 3.3198217861354351e-003</internalNodes>
          <leafValues>
            -1.4953101053833961e-002 9.5507904887199402e-002</leafValues></_>
        <_>
          <internalNodes>
            0 -1 52 2.0000025629997253e-002</internalNodes>
          <leafValues>
            1.2104762718081474e-002 -9.0367071330547333e-002</leafValues></_>
        <_>
          <internalNodes>
            0 -1 52 2.0102079957723618e-002</internalNodes>
          <leafValues>
            8.5677662864327431e-003 -4.2393751442432404e-002</leafValues></_>
        <_>
          <internalNodes>
            0 -1 52 2.0102079957723618e-002</internalNodes>
          <leafValues>
            -5.7178910356014967e-004 2.3509915918111801e-003</leafValues></_>
        <_>
          <internalNodes>
            0 -1 52 2.0102079957723618e-002</internalNodes>
          <leafValues>
            1.2531074695289135e-002 -5.1448304206132889e-002</leafValues></_>
        <_>
          <internalNodes>
            0 -1 52 2.0189587026834488e-002</internalNodes>
          <leafValues>
            -2.8113152831792831e-002 1.3539260625839233e-001</leafValues></_>
        <_>
          <internalNodes>
            0 -1 52 1.9707052037119865e-002</internalNodes>
          <leafValues>
            1.6078175976872444e-003 -3.5259071737527847e-003</leafValues></_>
        <_>
          <internalNodes>
            0 -1 52 1.9707052037119865e-002</internalNodes>
          <leafValues>
            8.7702991440892220e-003 -3.6362670361995697e-002</leafValues></_>
        <_>
          <internalNodes>
            0 -1 52 2.0000025629997253e-002</internalNodes>
          <leafValues>
            3.4076932352036238e-003 -1.3137598522007465e-002</leafValues></_>
        <_>
          <internalNodes>
            0 -1 52 2.0000025629997253e-002</internalNodes>
          <leafValues>
            2.9271913226693869e-003 -1.0831575840711594e-002</leafValues></_>
        <_>
          <internalNodes>
            0 -1 52 2.0000025629997253e-002</internalNodes>
          <leafValues>
            1.5938404249027371e-003 -5.8112763799726963e-003</leafValues></_>
        <_>
          <internalNodes>
            0 -1 52 2.0000025629997253e-002</internalNodes>
          <leafValues>
            -1.3843273743987083e-002 6.2140978872776031e-002</leafValues></_>
        <_>
          <internalNodes>
            0 -1 52 1.9707052037119865e-002</internalNodes>
          <leafValues>
            -2.7813180349767208e-003 1.7460344359278679e-002</leafValues></_>
        <_>
          <internalNodes>
            0 -1 52 2.0102079957723618e-002</internalNodes>
          <leafValues>
            -6.4146849326789379e-003 6.3182741403579712e-002</leafValues></_>
        <_>
          <internalNodes>
            0 -1 52 1.9327914342284203e-002</internalNodes>
          <leafValues>
            -1.6703668516129255e-003 -1.9537324085831642e-002</leafValues></_>
        <_>
          <internalNodes>
            0 -1 54 3.3198217861354351e-003</internalNodes>
          <leafValues>
            -1.5491676516830921e-002 1.8218611180782318e-001</leafValues></_>
        <_>
          <internalNodes>
            0 -1 52 1.8608883023262024e-002</internalNodes>
          <leafValues>
            3.9305523969233036e-003 -7.1582794189453125e-002</leafValues></_>
        <_>
          <internalNodes>
            0 -1 52 1.8817489966750145e-002</internalNodes>
          <leafValues>
            6.6764145158231258e-003 -4.4189650565385818e-002</leafValues></_>
        <_>
          <internalNodes>
            0 -1 52 1.8817489966750145e-002</internalNodes>
          <leafValues>
            1.0457358323037624e-002 -4.7038305550813675e-002</leafValues></_>
        <_>
          <internalNodes>
            0 -1 52 1.9234830513596535e-002</internalNodes>
          <leafValues>
            1.4432137832045555e-002 -5.9714034199714661e-002</leafValues></_>
        <_>
          <internalNodes>
            0 -1 52 1.9234830513596535e-002</internalNodes>
          <leafValues>
            -2.0672351121902466e-002 1.0125909000635147e-001</leafValues></_>
        <_>
          <internalNodes>
            0 -1 52 1.8817489966750145e-002</internalNodes>
          <leafValues>
            -5.4385145194828510e-003 3.2253637909889221e-002</leafValues></_>
        <_>
          <internalNodes>
            0 -1 52 1.8608883023262024e-002</internalNodes>
          <leafValues>
            8.2529345527291298e-003 -3.9351876825094223e-002</leafValues></_>
        <_>
          <internalNodes>
            0 -1 52 1.8817489966750145e-002</internalNodes>
          <leafValues>
            -7.4269110336899757e-003 3.4264773130416870e-002</leafValues></_>
        <_>
          <internalNodes>
            0 -1 52 1.8608883023262024e-002</internalNodes>
          <leafValues>
            -1.5993213746696711e-003 1.1951267719268799e-002</leafValues></_>
        <_>
          <internalNodes>
            0 -1 52 1.8608883023262024e-002</internalNodes>
          <leafValues>
            2.0947381854057312e-002 -8.4868192672729492e-002</leafValues></_>
        <_>
          <internalNodes>
            0 -1 52 1.9234830513596535e-002</internalNodes>
          <leafValues>
            2.0609172061085701e-003 -7.5517827644944191e-003</leafValues></_>
        <_>
          <internalNodes>
            0 -1 52 1.9234830513596535e-002</internalNodes>
          <leafValues>
            -1.9654478877782822e-002 9.8098598420619965e-002</leafValues></_>
        <_>
          <internalNodes>
            0 -1 52 1.8485795706510544e-002</internalNodes>
          <leafValues>
            2.1597752347588539e-002 -9.1128319501876831e-002</leafValues></_>
        <_>
          <internalNodes>
            0 -1 52 1.9068697467446327e-002</internalNodes>
          <leafValues>
            -1.8840853124856949e-002 9.9677614867687225e-002</leafValues></_>
        <_>
          <internalNodes>
            0 -1 52 1.8357129767537117e-002</internalNodes>
          <leafValues>
            1.9563321024179459e-002 -8.3334378898143768e-002</leafValues></_>
        <_>
          <internalNodes>
            0 -1 52 1.9068697467446327e-002</internalNodes>
          <leafValues>
            -2.3360720369964838e-003 1.0192096233367920e-002</leafValues></_>
        <_>
          <internalNodes>
            0 -1 52 1.9068697467446327e-002</internalNodes>
          <leafValues>
            4.0878509171307087e-003 -1.5341586433351040e-002</leafValues></_>
        <_>
          <internalNodes>
            0 -1 52 1.9068697467446327e-002</internalNodes>
          <leafValues>
            -1.0427596280351281e-003 3.7879901938140392e-003</leafValues></_>
        <_>
          <internalNodes>
            0 -1 52 1.9068697467446327e-002</internalNodes>
          <leafValues>
            6.1046006157994270e-004 -2.1881812717765570e-003</leafValues></_>
        <_>
          <internalNodes>
            0 -1 52 1.9068697467446327e-002</internalNodes>
          <leafValues>
            -2.0630797371268272e-003 7.3258453048765659e-003</leafValues></_>
        <_>
          <internalNodes>
            0 -1 52 1.9068697467446327e-002</internalNodes>
          <leafValues>
            -2.9270339485520935e-009 1.3105874074881285e-007</leafValues></_>
        <_>
          <internalNodes>
            0 -1 52 1.9068697467446327e-002</internalNodes>
          <leafValues>
            -1.4512541592992621e-015 2.4728139572310155e-016</leafValues></_>
        <_>
          <internalNodes>
            0 -1 52 1.9068697467446327e-002</internalNodes>
          <leafValues>
            1.7590605324964361e-015 -1.0805573500087998e-016</leafValues></_>
        <_>
          <internalNodes>
            0 -1 52 1.9068697467446327e-002</internalNodes>
          <leafValues>
            7.9233796520728123e-016 -9.5587767359321300e-017</leafValues></_>
        <_>
          <internalNodes>
            0 -1 52 1.9068697467446327e-002</internalNodes>
          <leafValues>
            -2.0305855199473930e-015 2.4935937930095316e-016</leafValues></_>
        <_>
          <internalNodes>
            0 -1 52 1.9068697467446327e-002</internalNodes>
          <leafValues>
            -5.8401275292892783e-016 0.</leafValues></_>
        <_>
          <internalNodes>
            0 -1 52 1.9068697467446327e-002</internalNodes>
          <leafValues>
            1.9006748062775801e-015 2.1403347318901854e-016</leafValues></_>
        <_>
          <internalNodes>
            0 -1 52 1.9068697467446327e-002</internalNodes>
          <leafValues>
            7.0221974766873207e-016 -3.3663516602675371e-016</leafValues></_>
        <_>
          <internalNodes>
            0 -1 52 1.9068697467446327e-002</internalNodes>
          <leafValues>
            -2.0656965179187414e-015 6.6495838450721117e-017</leafValues></_>
        <_>
          <internalNodes>
            0 -1 52 1.9068697467446327e-002</internalNodes>
          <leafValues>
            -7.6776029839107284e-016 -1.3299167690144223e-016</leafValues></_>
        <_>
          <internalNodes>
            0 -1 52 1.9068697467446327e-002</internalNodes>
          <leafValues>
            2.0703778572599791e-015 2.3481341484665307e-016</leafValues></_>
        <_>
          <internalNodes>
            0 -1 52 1.9068697467446327e-002</internalNodes>
          <leafValues>
            7.0221974766873207e-016 -2.5974935012977043e-016</leafValues></_>
        <_>
          <internalNodes>
            0 -1 52 1.9068697467446327e-002</internalNodes>
          <leafValues>
            -2.0317559077222616e-015 2.9715326628933626e-016</leafValues></_>
        <_>
          <internalNodes>
            0 -1 52 1.9068697467446327e-002</internalNodes>
          <leafValues>
            -6.5891619409198083e-016 -1.4545964454300091e-017</leafValues></_>
        <_>
          <internalNodes>
            0 -1 52 1.9068697467446327e-002</internalNodes>
          <leafValues>
            2.1546442947428628e-015 1.0182175118010064e-016</leafValues></_>
        <_>
          <internalNodes>
            0 -1 52 1.9068697467446327e-002</internalNodes>
          <leafValues>
            6.2731630650567907e-016 -4.5923685886448888e-016</leafValues></_>
        <_>
          <internalNodes>
            0 -1 52 1.9068697467446327e-002</internalNodes>
          <leafValues>
            -2.0317559077222616e-015 2.1818946681450137e-016</leafValues></_>
        <_>
          <internalNodes>
            0 -1 52 1.9068697467446327e-002</internalNodes>
          <leafValues>
            -5.4304997490191385e-016 -1.4753764135574233e-016</leafValues></_>
        <_>
          <internalNodes>
            0 -1 52 1.9068697467446327e-002</internalNodes>
          <leafValues>
            1.6186165406110423e-015 3.0338724349267070e-016</leafValues></_>
        <_>
          <internalNodes>
            0 -1 52 1.9068697467446327e-002</internalNodes>
          <leafValues>
            7.9584907559232792e-016 -3.9066303021847125e-016</leafValues></_>
        <_>
          <internalNodes>
            0 -1 52 1.9068697467446327e-002</internalNodes>
          <leafValues>
            7.3967146825025857e-016 3.1377724079126757e-016</leafValues></_>
        <_>
          <internalNodes>
            0 -1 52 1.9068697467446327e-002</internalNodes>
          <leafValues>
            -2.2318884055765346e-015 2.4520338567547034e-016</leafValues></_>
        <_>
          <internalNodes>
            0 -1 52 1.9068697467446327e-002</internalNodes>
          <leafValues>
            -3.1365816384075138e-015 -1.7247357663885968e-016</leafValues></_>
        <_>
          <internalNodes>
            0 -1 52 1.9068697467446327e-002</internalNodes>
          <leafValues>
            2.8615455935110693e-015 1.9740951192197704e-016</leafValues></_>
        <_>
          <internalNodes>
            0 -1 52 1.9068697467446327e-002</internalNodes>
          <leafValues>
            1.0802481168086030e-015 -4.4676890445782000e-016</leafValues></_>
        <_>
          <internalNodes>
            0 -1 52 1.9068697467446327e-002</internalNodes>
          <leafValues>
            9.3512267970285307e-016 3.9274104026610246e-016</leafValues></_>
        <_>
          <internalNodes>
            0 -1 52 1.9068697467446327e-002</internalNodes>
          <leafValues>
            -2.0961259647906154e-015 6.0261854629941778e-017</leafValues></_>
        <_>
          <internalNodes>
            0 -1 52 1.9068697467446327e-002</internalNodes>
          <leafValues>
            -6.1795341606496685e-016 2.7013933750219994e-017</leafValues></_>
        <_>
          <internalNodes>
            0 -1 52 1.9068697467446327e-002</internalNodes>
          <leafValues>
            1.5437130994479893e-015 -4.9871877183679613e-017</leafValues></_>
        <_>
          <internalNodes>
            0 -1 52 1.9068697467446327e-002</internalNodes>
          <leafValues>
            7.9936018597737460e-016 -3.3247917240127088e-016</leafValues></_>
        <_>
          <internalNodes>
            0 -1 52 1.9068697467446327e-002</internalNodes>
          <leafValues>
            7.0573085805377875e-016 2.6182736017740164e-016</leafValues></_>
        <_>
          <internalNodes>
            0 -1 52 1.9068697467446327e-002</internalNodes>
          <leafValues>
            2.0013263020317101e-016 4.5715886866919237e-017</leafValues></_>
        <_>
          <internalNodes>
            0 -1 52 1.9068697467446327e-002</internalNodes>
          <leafValues>
            -2.2845550084126757e-015 4.5715886866919237e-017</leafValues></_>
        <_>
          <internalNodes>
            0 -1 52 1.9068697467446327e-002</internalNodes>
          <leafValues>
            -2.9867747560814078e-015 -1.3091368008870082e-016</leafValues></_>
        <_>
          <internalNodes>
            0 -1 52 1.9068697467446327e-002</internalNodes>
          <leafValues>
            2.7901532097935038e-015 1.0182175118010064e-016</leafValues></_>
        <_>
          <internalNodes>
            0 -1 52 1.9068697467446327e-002</internalNodes>
          <leafValues>
            1.1890921681681358e-015 -4.2391095275255426e-016</leafValues></_>
        <_>
          <internalNodes>
            0 -1 52 1.9068697467446327e-002</internalNodes>
          <leafValues>
            9.5970029357950225e-016 3.6988308856083672e-016</leafValues></_>
        <_>
          <internalNodes>
            0 -1 52 1.9068697467446327e-002</internalNodes>
          <leafValues>
            -2.1710295118327868e-015 -1.6000560899730100e-016</leafValues></_>
        <_>
          <internalNodes>
            0 -1 52 1.9068697467446327e-002</internalNodes>
          <leafValues>
            -6.5072363848657803e-016 2.9091928908600182e-016</leafValues></_>
        <_>
          <internalNodes>
            0 -1 52 1.9068697467446327e-002</internalNodes>
          <leafValues>
            1.6151054831655548e-015 -5.8183857817200365e-017</leafValues></_>
        <_>
          <internalNodes>
            0 -1 52 1.9068697467446327e-002</internalNodes>
          <leafValues>
            7.7361207844673838e-016 -4.5508089170878565e-016</leafValues></_>
        <_>
          <internalNodes>
            0 -1 52 1.9068697467446327e-002</internalNodes>
          <leafValues>
            6.1795341606496685e-016 4.8001680052212341e-016</leafValues></_>
        <_>
          <internalNodes>
            0 -1 52 1.9068697467446327e-002</internalNodes>
          <leafValues>
            -2.2155034002448474e-015 -1.8286354746767695e-016</leafValues></_>
        <_>
          <internalNodes>
            0 -1 52 1.9068697467446327e-002</internalNodes>
          <leafValues>
            -6.5423474887162472e-016 2.4104741851976711e-016</leafValues></_>
        <_>
          <internalNodes>
            0 -1 52 1.9068697467446327e-002</internalNodes>
          <leafValues>
            1.6022314294002367e-015 -1.6623959612680279e-017</leafValues></_>
        <_>
          <internalNodes>
            0 -1 52 1.9068697467446327e-002</internalNodes>
          <leafValues>
            7.0221974766873207e-016 -3.1169923074363635e-016</leafValues></_>
        <_>
          <internalNodes>
            0 -1 52 1.9068697467446327e-002</internalNodes>
          <leafValues>
            6.1444230567992016e-016 3.4910314690320219e-016</leafValues></_>
        <_>
          <internalNodes>
            0 -1 52 1.9068697467446327e-002</internalNodes>
          <leafValues>
            -2.2061405098041352e-015 -3.0130925991481909e-016</leafValues></_>
        <_>
          <internalNodes>
            0 -1 52 1.9068697467446327e-002</internalNodes>
          <leafValues>
            -3.1272187479668015e-015 4.9871877183679613e-017</leafValues></_>
        <_>
          <internalNodes>
            0 -1 52 1.9068697467446327e-002</internalNodes>
          <leafValues>
            2.7761087682533171e-015 3.7403909542120935e-017</leafValues></_></weakClassifiers></_>
    <!-- stage 1 -->
    <_>
      <maxWeakCount>1</maxWeakCount>
      <stageThreshold>9.8412698507308960e-001</stageThreshold>
      <weakClassifiers>
        <_>
          <internalNodes>
            0 -1 32 -2.2805511951446533e-002</internalNodes>
          <leafValues>
            9.8412698507308960e-001 -1.</leafValues></_></weakClassifiers></_>
    <!-- stage 2 -->
    <_>
      <maxWeakCount>3</maxWeakCount>
      <stageThreshold>-7.2054201364517212e-001</stageThreshold>
      <weakClassifiers>
        <_>
          <internalNodes>
            0 -1 32 -3.9048966020345688e-002</internalNodes>
          <leafValues>
            9.2712551355361938e-001 -7.6699030399322510e-001</leafValues></_>
        <_>
          <internalNodes>
            0 -1 82 -2.3213345557451248e-003</internalNodes>
          <leafValues>
            8.9904695749282837e-001 -6.9113397598266602e-001</leafValues></_>
        <_>
          <internalNodes>
            0 -1 19 5.0682350993156433e-002</internalNodes>
          <leafValues>
            -7.8726840019226074e-001 7.3758226633071899e-001</leafValues></_></weakClassifiers></_>
    <!-- stage 3 -->
    <_>
      <maxWeakCount>3</maxWeakCount>
      <stageThreshold>-6.7622500658035278e-001</stageThreshold>
      <weakClassifiers>
        <_>
          <internalNodes>
            0 -1 58 -1.4224220067262650e-002</internalNodes>
          <leafValues>
            8.7599998712539673e-001 -6.8999999761581421e-001</leafValues></_>
        <_>
          <internalNodes>
            0 -1 8 3.7422172725200653e-002</internalNodes>
          <leafValues>
            -7.1008253097534180e-001 8.1231963634490967e-001</leafValues></_>
        <_>
          <internalNodes>
            0 -1 82 -2.5342577137053013e-003</internalNodes>
          <leafValues>
            7.2385746240615845e-001 -7.7890598773956299e-001</leafValues></_></weakClassifiers></_>
    <!-- stage 4 -->
    <_>
      <maxWeakCount>5</maxWeakCount>
      <stageThreshold>-1.1900745630264282e+000</stageThreshold>
      <weakClassifiers>
        <_>
          <internalNodes>
            0 -1 77 8.0113410949707031e-002</internalNodes>
          <leafValues>
            -7.0949721336364746e-001 8.1957775354385376e-001</leafValues></_>
        <_>
          <internalNodes>
            0 -1 73 -4.0666684508323669e-003</internalNodes>
          <leafValues>
            8.1160074472427368e-001 -6.0499924421310425e-001</leafValues></_>
        <_>
          <internalNodes>
            0 -1 1 3.8157634437084198e-002</internalNodes>
          <leafValues>
            -7.7681261301040649e-001 5.9675300121307373e-001</leafValues></_>
        <_>
          <internalNodes>
            0 -1 79 3.0092615634202957e-003</internalNodes>
          <leafValues>
            -7.3190230131149292e-001 4.9956521391868591e-001</leafValues></_>
        <_>
          <internalNodes>
            0 -1 55 -2.3762397468090057e-002</internalNodes>
          <leafValues>
            4.0166938304901123e-001 -8.7327259778976440e-001</leafValues></_></weakClassifiers></_>
    <!-- stage 5 -->
    <_>
      <maxWeakCount>6</maxWeakCount>
      <stageThreshold>-8.4676152467727661e-001</stageThreshold>
      <weakClassifiers>
        <_>
          <internalNodes>
            0 -1 85 5.6323193013668060e-002</internalNodes>
          <leafValues>
            -6.4331209659576416e-001 7.3848986625671387e-001</leafValues></_>
        <_>
          <internalNodes>
            0 -1 31 3.3415533602237701e-002</internalNodes>
          <leafValues>
            -7.1243995428085327e-001 6.4371639490127563e-001</leafValues></_>
        <_>
          <internalNodes>
            0 -1 73 -3.4656571224331856e-003</internalNodes>
          <leafValues>
            5.5206352472305298e-001 -6.7188304662704468e-001</leafValues></_>
        <_>
          <internalNodes>
            0 -1 87 2.9711898416280746e-002</internalNodes>
          <leafValues>
            -7.4920922517776489e-001 4.5049825310707092e-001</leafValues></_>
        <_>
          <internalNodes>
            0 -1 101 2.2748576477169991e-002</internalNodes>
          <leafValues>
            -7.2171843051910400e-001 4.1900542378425598e-001</leafValues></_>
        <_>
          <internalNodes>
            0 -1 47 -3.1227761064656079e-004</internalNodes>
          <leafValues>
            -9.7674912214279175e-001 3.1136986613273621e-001</leafValues></_></weakClassifiers></_>
    <!-- stage 6 -->
    <_>
      <maxWeakCount>4</maxWeakCount>
      <stageThreshold>-6.3213658332824707e-001</stageThreshold>
      <weakClassifiers>
        <_>
          <internalNodes>
            0 -1 71 2.1614176221191883e-003</internalNodes>
          <leafValues>
            -5.6783920526504517e-001 8.2435131072998047e-001</leafValues></_>
        <_>
          <internalNodes>
            0 -1 90 8.9255037892144173e-005</internalNodes>
          <leafValues>
            5.7441812753677368e-001 -8.2261914014816284e-001</leafValues></_>
        <_>
          <internalNodes>
            0 -1 36 8.0481855547986925e-005</internalNodes>
          <leafValues>
            3.4041669964790344e-001 -9.2907595634460449e-001</leafValues></_>
        <_>
          <internalNodes>
            0 -1 95 2.2297928808256984e-004</internalNodes>
          <leafValues>
            2.9511913657188416e-001 -9.7428542375564575e-001</leafValues></_></weakClassifiers></_>
    <!-- stage 7 -->
    <_>
      <maxWeakCount>7</maxWeakCount>
      <stageThreshold>-1.4168457984924316e+000</stageThreshold>
      <weakClassifiers>
        <_>
          <internalNodes>
            0 -1 38 -3.0206518247723579e-002</internalNodes>
          <leafValues>
            7.2302156686782837e-001 -7.0833331346511841e-001</leafValues></_>
        <_>
          <internalNodes>
            0 -1 67 9.5788352191448212e-002</internalNodes>
          <leafValues>
            -5.8917993307113647e-001 6.7791467905044556e-001</leafValues></_>
        <_>
          <internalNodes>
            0 -1 4 6.5500766038894653e-002</internalNodes>
          <leafValues>
            -6.0076075792312622e-001 6.0077428817749023e-001</leafValues></_>
        <_>
          <internalNodes>
            0 -1 80 -2.5959722697734833e-003</internalNodes>
          <leafValues>
            3.4605076909065247e-001 -9.5395016670227051e-001</leafValues></_>
        <_>
          <internalNodes>
            0 -1 70 1.7094060312956572e-003</internalNodes>
          <leafValues>
            -5.6474786996841431e-001 5.3139144182205200e-001</leafValues></_>
        <_>
          <internalNodes>
            0 -1 37 8.0325789749622345e-003</internalNodes>
          <leafValues>
            -9.3470925092697144e-001 3.0648145079612732e-001</leafValues></_>
        <_>
          <internalNodes>
            0 -1 103 -2.1832499653100967e-002</internalNodes>
          <leafValues>
            3.9364382624626160e-001 -7.6104509830474854e-001</leafValues></_></weakClassifiers></_>
    <!-- stage 8 -->
    <_>
      <maxWeakCount>7</maxWeakCount>
      <stageThreshold>-6.6423583030700684e-001</stageThreshold>
      <weakClassifiers>
        <_>
          <internalNodes>
            0 -1 79 1.9420303869992495e-003</internalNodes>
          <leafValues>
            -7.5609755516052246e-001 6.8110918998718262e-001</leafValues></_>
        <_>
          <internalNodes>
            0 -1 2 6.4058840274810791e-002</internalNodes>
          <leafValues>
            -6.5725678205490112e-001 5.7960897684097290e-001</leafValues></_>
        <_>
          <internalNodes>
            0 -1 30 -1.3995514251291752e-002</internalNodes>
          <leafValues>
            3.8883495330810547e-001 -8.3486855030059814e-001</leafValues></_>
        <_>
          <internalNodes>
            0 -1 61 2.4036711547523737e-003</internalNodes>
          <leafValues>
            -8.8877135515213013e-001 3.0931031703948975e-001</leafValues></_>
        <_>
          <internalNodes>
            0 -1 66 1.5019104466773570e-004</internalNodes>
          <leafValues>
            1.7106436192989349e-001 -8.7292808294296265e-001</leafValues></_>
        <_>
          <internalNodes>
            0 -1 64 9.6306717023253441e-004</internalNodes>
          <leafValues>
            2.7712410688400269e-001 -8.0917817354202271e-001</leafValues></_>
        <_>
          <internalNodes>
            0 -1 24 -4.7794491052627563e-002</internalNodes>
          <leafValues>
            6.5395361185073853e-001 -3.9721521735191345e-001</leafValues></_></weakClassifiers></_>
    <!-- stage 9 -->
    <_>
      <maxWeakCount>5</maxWeakCount>
      <stageThreshold>-8.9198160171508789e-001</stageThreshold>
      <weakClassifiers>
        <_>
          <internalNodes>
            0 -1 62 3.3453633077442646e-003</internalNodes>
          <leafValues>
            -8.1981980800628662e-001 6.6383701562881470e-001</leafValues></_>
        <_>
          <internalNodes>
            0 -1 95 -2.7341907843947411e-004</internalNodes>
          <leafValues>
            -8.8272464275360107e-001 4.1876500844955444e-001</leafValues></_>
        <_>
          <internalNodes>
            0 -1 74 -2.0916485227644444e-003</internalNodes>
          <leafValues>
            5.6040459871292114e-001 -6.0729473829269409e-001</leafValues></_>
        <_>
          <internalNodes>
            0 -1 28 3.0837332829833031e-002</internalNodes>
          <leafValues>
            -7.0779263973236084e-001 4.6620118618011475e-001</leafValues></_>
        <_>
          <internalNodes>
            0 -1 27 5.9255495667457581e-002</internalNodes>
          <leafValues>
            -6.5949618816375732e-001 4.7725418210029602e-001</leafValues></_></weakClassifiers></_>
    <!-- stage 10 -->
    <_>
      <maxWeakCount>6</maxWeakCount>
      <stageThreshold>-5.8318984508514404e-001</stageThreshold>
      <weakClassifiers>
        <_>
          <internalNodes>
            0 -1 81 2.1995540009811521e-004</internalNodes>
          <leafValues>
            6.5174126625061035e-001 -9.5876288414001465e-001</leafValues></_>
        <_>
          <internalNodes>
            0 -1 104 -3.1611538724973798e-004</internalNodes>
          <leafValues>
            -8.6235183477401733e-001 3.4421893954277039e-001</leafValues></_>
        <_>
          <internalNodes>
            0 -1 5 2.6971504092216492e-002</internalNodes>
          <leafValues>
            -4.8620006442070007e-001 5.6382155418395996e-001</leafValues></_>
        <_>
          <internalNodes>
            0 -1 86 1.7557153478264809e-002</internalNodes>
          <leafValues>
            -8.9473181962966919e-001 2.9657426476478577e-001</leafValues></_>
        <_>
          <internalNodes>
            0 -1 26 -1.8193606287240982e-002</internalNodes>
          <leafValues>
            8.0429077148437500e-001 -3.5171204805374146e-001</leafValues></_>
        <_>
          <internalNodes>
            0 -1 73 -6.8808654323220253e-003</internalNodes>
          <leafValues>
            7.1397644281387329e-001 -3.9200761914253235e-001</leafValues></_></weakClassifiers></_>
    <!-- stage 11 -->
    <_>
      <maxWeakCount>8</maxWeakCount>
      <stageThreshold>-9.5976972579956055e-001</stageThreshold>
      <weakClassifiers>
        <_>
          <internalNodes>
            0 -1 104 3.5898722126148641e-004</internalNodes>
          <leafValues>
            5.9615385532379150e-001 -9.4736844301223755e-001</leafValues></_>
        <_>
          <internalNodes>
            0 -1 60 -2.5560301728546619e-003</internalNodes>
          <leafValues>
            5.0145918130874634e-001 -5.7689130306243896e-001</leafValues></_>
        <_>
          <internalNodes>
            0 -1 105 -3.1440872699022293e-003</internalNodes>
          <leafValues>
            3.5754114389419556e-001 -8.4333467483520508e-001</leafValues></_>
        <_>
          <internalNodes>
            0 -1 74 -2.6317317970097065e-003</internalNodes>
          <leafValues>
            4.9819767475128174e-001 -5.2753657102584839e-001</leafValues></_>
        <_>
          <internalNodes>
            0 -1 55 -3.0216958373785019e-002</internalNodes>
          <leafValues>
            3.9752697944641113e-001 -6.9750094413757324e-001</leafValues></_>
        <_>
          <internalNodes>
            0 -1 96 2.0441252854652703e-004</internalNodes>
          <leafValues>
            2.5530478358268738e-001 -7.8269916772842407e-001</leafValues></_>
        <_>
          <internalNodes>
            0 -1 7 -3.6441509146243334e-003</internalNodes>
          <leafValues>
            5.5465924739837646e-001 -4.3531349301338196e-001</leafValues></_>
        <_>
          <internalNodes>
            0 -1 89 -3.0789457377977669e-004</internalNodes>
          <leafValues>
            -9.8321229219436646e-001 2.4361440539360046e-001</leafValues></_></weakClassifiers></_>
    <!-- stage 12 -->
    <_>
      <maxWeakCount>6</maxWeakCount>
      <stageThreshold>-2.1344828605651855e-001</stageThreshold>
      <weakClassifiers>
        <_>
          <internalNodes>
            0 -1 15 5.6755570694804192e-003</internalNodes>
          <leafValues>
            -8.5714286565780640e-001 6.0389608144760132e-001</leafValues></_>
        <_>
          <internalNodes>
            0 -1 34 6.0031875967979431e-002</internalNodes>
          <leafValues>
            -4.2085015773773193e-001 6.4137446880340576e-001</leafValues></_>
        <_>
          <internalNodes>
            0 -1 83 -2.1610786207020283e-003</internalNodes>
          <leafValues>
            4.1907322406768799e-001 -7.3549824953079224e-001</leafValues></_>
        <_>
          <internalNodes>
            0 -1 49 1.1490879114717245e-004</internalNodes>
          <leafValues>
            2.0191083848476410e-001 -8.6313325166702271e-001</leafValues></_>
        <_>
          <internalNodes>
            0 -1 47 -2.1737923088949174e-004</internalNodes>
          <leafValues>
            -8.7326431274414063e-001 2.0809359848499298e-001</leafValues></_>
        <_>
          <internalNodes>
            0 -1 106 -4.2270246194675565e-004</internalNodes>
          <leafValues>
            -7.6178556680679321e-001 2.5460031628608704e-001</leafValues></_></weakClassifiers></_>
    <!-- stage 13 -->
    <_>
      <maxWeakCount>10</maxWeakCount>
      <stageThreshold>-7.4833142757415771e-001</stageThreshold>
      <weakClassifiers>
        <_>
          <internalNodes>
            0 -1 68 -2.0021498203277588e-002</internalNodes>
          <leafValues>
            6.2416106462478638e-001 -6.9230771064758301e-001</leafValues></_>
        <_>
          <internalNodes>
            0 -1 12 -2.5701099075376987e-003</internalNodes>
          <leafValues>
            5.3395539522171021e-001 -4.9958240985870361e-001</leafValues></_>
        <_>
          <internalNodes>
            0 -1 69 -1.9857950974255800e-003</internalNodes>
          <leafValues>
            4.6668663620948792e-001 -6.7121738195419312e-001</leafValues></_>
        <_>
          <internalNodes>
            0 -1 9 5.2130543626844883e-003</internalNodes>
          <leafValues>
            -3.6773434281349182e-001 7.1850442886352539e-001</leafValues></_>
        <_>
          <internalNodes>
            0 -1 92 -3.7221104139462113e-004</internalNodes>
          <leafValues>
            -9.9074918031692505e-001 1.9224523007869720e-001</leafValues></_>
        <_>
          <internalNodes>
            0 -1 51 -1.3646146282553673e-002</internalNodes>
          <leafValues>
            5.4903703927993774e-001 -3.8408789038658142e-001</leafValues></_>
        <_>
          <internalNodes>
            0 -1 63 -4.5383311808109283e-003</internalNodes>
          <leafValues>
            2.6945507526397705e-001 -9.6375411748886108e-001</leafValues></_>
        <_>
          <internalNodes>
            0 -1 33 -7.9868203029036522e-003</internalNodes>
          <leafValues>
            2.4866038560867310e-001 -8.2725828886032104e-001</leafValues></_>
        <_>
          <internalNodes>
            0 -1 20 4.1138920933008194e-002</internalNodes>
          <leafValues>
            -3.2491201162338257e-001 8.2924580574035645e-001</leafValues></_>
        <_>
          <internalNodes>
            0 -1 45 -1.0029954864876345e-005</internalNodes>
          <leafValues>
            5.4802471399307251e-001 -4.4723275303840637e-001</leafValues></_></weakClassifiers></_>
    <!-- stage 14 -->
    <_>
      <maxWeakCount>8</maxWeakCount>
      <stageThreshold>-9.3193292617797852e-001</stageThreshold>
      <weakClassifiers>
        <_>
          <internalNodes>
            0 -1 93 3.8795510772615671e-004</internalNodes>
          <leafValues>
            6.3237774372100830e-001 -7.0093458890914917e-001</leafValues></_>
        <_>
          <internalNodes>
            0 -1 65 -2.2355844266712666e-003</internalNodes>
          <leafValues>
            3.2404005527496338e-001 -8.7948465347290039e-001</leafValues></_>
        <_>
          <internalNodes>
            0 -1 84 8.4882747614756227e-004</internalNodes>
          <leafValues>
            2.1632809937000275e-001 -1.</leafValues></_>
        <_>
          <internalNodes>
            0 -1 42 -3.0026687309145927e-003</internalNodes>
          <leafValues>
            -9.2002695798873901e-001 1.9169522821903229e-001</leafValues></_>
        <_>
          <internalNodes>
            0 -1 25 3.5448092967271805e-002</internalNodes>
          <leafValues>
            -5.8314955234527588e-001 4.3066227436065674e-001</leafValues></_>
        <_>
          <internalNodes>
            0 -1 98 -9.7470046966918744e-006</internalNodes>
          <leafValues>
            4.2612862586975098e-001 -4.6791157126426697e-001</leafValues></_>
        <_>
          <internalNodes>
            0 -1 72 2.2534532472491264e-003</internalNodes>
          <leafValues>
            -4.5876175165176392e-001 4.9044126272201538e-001</leafValues></_>
        <_>
          <internalNodes>
            0 -1 10 2.1158777177333832e-002</internalNodes>
          <leafValues>
            -3.4727904200553894e-001 6.8661004304885864e-001</leafValues></_></weakClassifiers></_>
    <!-- stage 15 -->
    <_>
      <maxWeakCount>12</maxWeakCount>
      <stageThreshold>-9.8055922985076904e-001</stageThreshold>
      <weakClassifiers>
        <_>
          <internalNodes>
            0 -1 11 -4.1038626804947853e-003</internalNodes>
          <leafValues>
            -7.5609755516052246e-001 5.8576053380966187e-001</leafValues></_>
        <_>
          <internalNodes>
            0 -1 21 -3.2112547196447849e-003</internalNodes>
          <leafValues>
            3.5206171870231628e-001 -7.1406143903732300e-001</leafValues></_>
        <_>
          <internalNodes>
            0 -1 100 5.4860442876815796e-002</internalNodes>
          <leafValues>
            -4.9431723356246948e-001 5.0958019495010376e-001</leafValues></_>
        <_>
          <internalNodes>
            0 -1 73 -3.5765036009252071e-003</internalNodes>
          <leafValues>
            3.5907870531082153e-001 -6.9587427377700806e-001</leafValues></_>
        <_>
          <internalNodes>
            0 -1 56 -1.0051066965388600e-005</internalNodes>
          <leafValues>
            3.1075602769851685e-001 -5.8561784029006958e-001</leafValues></_>
        <_>
          <internalNodes>
            0 -1 108 -7.3470324277877808e-003</internalNodes>
          <leafValues>
            4.2076906561851501e-001 -4.9739617109298706e-001</leafValues></_>
        <_>
          <internalNodes>
            0 -1 76 3.3606069337110966e-005</internalNodes>
          <leafValues>
            2.0444327592849731e-001 -8.2987338304519653e-001</leafValues></_>
        <_>
          <internalNodes>
            0 -1 75 -2.1428028121590614e-003</internalNodes>
          <leafValues>
            4.0263059735298157e-001 -5.2996861934661865e-001</leafValues></_>
        <_>
          <internalNodes>
            0 -1 18 -3.7153758108615875e-002</internalNodes>
          <leafValues>
            2.6125711202621460e-001 -7.8978532552719116e-001</leafValues></_>
        <_>
          <internalNodes>
            0 -1 91 -2.1879843552596867e-004</internalNodes>
          <leafValues>
            -9.1183465719223022e-001 1.6263255476951599e-001</leafValues></_>
        <_>
          <internalNodes>
            0 -1 46 -1.0310851037502289e-002</internalNodes>
          <leafValues>
            -9.9508082866668701e-001 1.4697243273258209e-001</leafValues></_>
        <_>
          <internalNodes>
            0 -1 6 2.2070348262786865e-002</internalNodes>
          <leafValues>
            2.7923658490180969e-001 -5.9023702144622803e-001</leafValues></_></weakClassifiers></_>
    <!-- stage 16 -->
    <_>
      <maxWeakCount>7</maxWeakCount>
      <stageThreshold>-2.0111463963985443e-001</stageThreshold>
      <weakClassifiers>
        <_>
          <internalNodes>
            0 -1 39 -2.6959244860336185e-004</internalNodes>
          <leafValues>
            -8.9333331584930420e-001 5.8719998598098755e-001</leafValues></_>
        <_>
          <internalNodes>
            0 -1 40 1.4617061242461205e-004</internalNodes>
          <leafValues>
            4.1938373446464539e-001 -6.1332082748413086e-001</leafValues></_>
        <_>
          <internalNodes>
            0 -1 59 1.8658174201846123e-002</internalNodes>
          <leafValues>
            -3.1877690553665161e-001 6.8257504701614380e-001</leafValues></_>
        <_>
          <internalNodes>
            0 -1 0 1.6499821841716766e-001</internalNodes>
          <leafValues>
            -2.8001150488853455e-001 7.1226704120635986e-001</leafValues></_>
        <_>
          <internalNodes>
            0 -1 41 -2.6246942579746246e-002</internalNodes>
          <leafValues>
            9.1505098342895508e-001 -2.3965650796890259e-001</leafValues></_>
        <_>
          <internalNodes>
            0 -1 99 -9.0856710448861122e-004</internalNodes>
          <leafValues>
            -7.3817235231399536e-001 3.6066603660583496e-001</leafValues></_>
        <_>
          <internalNodes>
            0 -1 99 -1.0444181498314720e-005</internalNodes>
          <leafValues>
            4.0934485197067261e-001 -5.9726178646087646e-001</leafValues></_></weakClassifiers></_>
    <!-- stage 17 -->
    <_>
      <maxWeakCount>8</maxWeakCount>
      <stageThreshold>-9.8056143522262573e-001</stageThreshold>
      <weakClassifiers>
        <_>
          <internalNodes>
            0 -1 39 1.2071745732100680e-004</internalNodes>
          <leafValues>
            6.2207359075546265e-001 -7.0588237047195435e-001</leafValues></_>
        <_>
          <internalNodes>
            0 -1 44 6.9261068711057305e-004</internalNodes>
          <leafValues>
            3.5839471220970154e-001 -8.4608346223831177e-001</leafValues></_>
        <_>
          <internalNodes>
            0 -1 29 5.9074454009532928e-002</internalNodes>
          <leafValues>
            -6.1610656976699829e-001 4.6625223755836487e-001</leafValues></_>
        <_>
          <internalNodes>
            0 -1 97 -1.0884969495236874e-002</internalNodes>
          <leafValues>
            -9.1111987829208374e-001 2.2897264361381531e-001</leafValues></_>
        <_>
          <internalNodes>
            0 -1 88 2.2115446627140045e-002</internalNodes>
          <leafValues>
            -4.5653751492500305e-001 5.3240686655044556e-001</leafValues></_>
        <_>
          <internalNodes>
            0 -1 102 -9.1449369210749865e-004</internalNodes>
          <leafValues>
            4.0929183363914490e-001 -5.9856361150741577e-001</leafValues></_>
        <_>
          <internalNodes>
            0 -1 82 -2.6019550859928131e-003</internalNodes>
          <leafValues>
            2.7839079499244690e-001 -6.8559217453002930e-001</leafValues></_>
        <_>
          <internalNodes>
            0 -1 13 4.4310577213764191e-003</internalNodes>
          <leafValues>
            1.6679751873016357e-001 -9.3504631519317627e-001</leafValues></_></weakClassifiers></_>
    <!-- stage 18 -->
    <_>
      <maxWeakCount>7</maxWeakCount>
      <stageThreshold>-4.9806320667266846e-001</stageThreshold>
      <weakClassifiers>
        <_>
          <internalNodes>
            0 -1 78 -7.5864908285439014e-004</internalNodes>
          <leafValues>
            -8.9041095972061157e-001 5.8213716745376587e-001</leafValues></_>
        <_>
          <internalNodes>
            0 -1 3 -2.0786564797163010e-002</internalNodes>
          <leafValues>
            8.0047369003295898e-001 -2.3326119780540466e-001</leafValues></_>
        <_>
          <internalNodes>
            0 -1 94 -3.6125285550951958e-003</internalNodes>
          <leafValues>
            3.1130412220954895e-001 -7.5107043981552124e-001</leafValues></_>
        <_>
          <internalNodes>
            0 -1 22 -3.6796124186366796e-004</internalNodes>
          <leafValues>
            -7.3226547241210938e-001 3.1796649098396301e-001</leafValues></_>
        <_>
          <internalNodes>
            0 -1 57 -3.2905275002121925e-003</internalNodes>
          <leafValues>
            2.2345164418220520e-001 -8.3613789081573486e-001</leafValues></_>
        <_>
          <internalNodes>
            0 -1 17 2.9275403358042240e-003</internalNodes>
          <leafValues>
            -4.1335332393646240e-001 5.6830292940139771e-001</leafValues></_>
        <_>
          <internalNodes>
            0 -1 107 -4.0385435568168759e-004</internalNodes>
          <leafValues>
            -8.5582560300827026e-001 2.6417335867881775e-001</leafValues></_></weakClassifiers></_>
    <!-- stage 19 -->
    <_>
      <maxWeakCount>10</maxWeakCount>
      <stageThreshold>-1.3502560853958130e+000</stageThreshold>
      <weakClassifiers>
        <_>
          <internalNodes>
            0 -1 43 -7.0360477548092604e-004</internalNodes>
          <leafValues>
            5.8399999141693115e-001 -8.6666667461395264e-001</leafValues></_>
        <_>
          <internalNodes>
            0 -1 35 -3.3797476440668106e-002</internalNodes>
          <leafValues>
            4.0862655639648438e-001 -6.5964972972869873e-001</leafValues></_>
        <_>
          <internalNodes>
            0 -1 14 6.5648544114083052e-004</internalNodes>
          <leafValues>
            -5.1507854461669922e-001 4.6316257119178772e-001</leafValues></_>
        <_>
          <internalNodes>
            0 -1 75 -1.6354664694517851e-003</internalNodes>
          <leafValues>
            4.0073955059051514e-001 -6.5109616518020630e-001</leafValues></_>
        <_>
          <internalNodes>
            0 -1 91 1.5689703286625445e-004</internalNodes>
          <leafValues>
            3.2136189937591553e-001 -7.4739116430282593e-001</leafValues></_>
        <_>
          <internalNodes>
            0 -1 50 -1.1523345485329628e-002</internalNodes>
          <leafValues>
            4.1829204559326172e-001 -5.1096570491790771e-001</leafValues></_>
        <_>
          <internalNodes>
            0 -1 23 2.9352633282542229e-003</internalNodes>
          <leafValues>
            -6.2785071134567261e-001 3.4858760237693787e-001</leafValues></_>
        <_>
          <internalNodes>
            0 -1 16 -1.0771382221719250e-005</internalNodes>
          <leafValues>
            3.6133593320846558e-001 -6.7076140642166138e-001</leafValues></_>
        <_>
          <internalNodes>
            0 -1 53 4.2654126882553101e-002</internalNodes>
          <leafValues>
            -7.5181698799133301e-001 2.6244699954986572e-001</leafValues></_>
        <_>
          <internalNodes>
            0 -1 48 5.9156653151148930e-005</internalNodes>
          <leafValues>
            1.7072299122810364e-001 -9.9064356088638306e-001</leafValues></_></weakClassifiers></_></stages>
  <features>
    <_>
      <rects>
        <_>
          0 5 21 14 -1.</_>
        <_>
          7 5 7 14 3.</_></rects>
      <tilted>0</tilted></_>
    <_>
      <rects>
        <_>
          0 13 18 2 -1.</_>
        <_>
          6 13 6 2 3.</_></rects>
      <tilted>0</tilted></_>
    <_>
      <rects>
        <_>
          0 13 18 3 -1.</_>
        <_>
          6 13 6 3 3.</_></rects>
      <tilted>0</tilted></_>
    <_>
      <rects>
        <_>
          1 12 6 6 -1.</_>
        <_>
          3 12 2 6 3.</_></rects>
      <tilted>0</tilted></_>
    <_>
      <rects>
        <_>
          1 12 18 4 -1.</_>
        <_>
          7 12 6 4 3.</_></rects>
      <tilted>0</tilted></_>
    <_>
      <rects>
        <_>
          1 13 15 1 -1.</_>
        <_>
          6 13 5 1 3.</_></rects>
      <tilted>0</tilted></_>
    <_>
      <rects>
        <_>
          3 6 11 12 -1.</_>
        <_>
          3 12 11 6 2.</_></rects>
      <tilted>0</tilted></_>
    <_>
      <rects>
        <_>
          3 10 3 5 -1.</_>
        <_>
          4 10 1 5 3.</_></rects>
      <tilted>0</tilted></_>
    <_>
      <rects>
        <_>
          3 13 12 3 -1.</_>
        <_>
          7 13 4 3 3.</_></rects>
      <tilted>0</tilted></_>
    <_>
      <rects>
        <_>
          4 10 3 4 -1.</_>
        <_>
          5 10 1 4 3.</_></rects>
      <tilted>0</tilted></_>
    <_>
      <rects>
        <_>
          4 10 4 6 -1.</_>
        <_>
          6 10 2 6 2.</_></rects>
      <tilted>0</tilted></_>
    <_>
      <rects>
        <_>
          4 10 14 3 -1.</_>
        <_>
          11 10 7 3 2.</_></rects>
      <tilted>0</tilted></_>
    <_>
      <rects>
        <_>
          4 14 4 4 -1.</_>
        <_>
          4 14 2 2 2.</_>
        <_>
          6 16 2 2 2.</_></rects>
      <tilted>0</tilted></_>
    <_>
      <rects>
        <_>
          5 11 14 3 -1.</_>
        <_>
          12 11 7 3 2.</_></rects>
      <tilted>0</tilted></_>
    <_>
      <rects>
        <_>
          5 12 2 12 -1.</_>
        <_>
          6 12 1 12 2.</_></rects>
      <tilted>0</tilted></_>
    <_>
      <rects>
        <_>
          5 14 9 2 -1.</_>
        <_>
          8 14 3 2 3.</_></rects>
      <tilted>0</tilted></_>
    <_>
      <rects>
        <_>
          6 10 4 2 -1.</_>
        <_>
          8 10 2 2 2.</_></rects>
      <tilted>0</tilted></_>
    <_>
      <rects>
        <_>
          6 16 6 4 -1.</_>
        <_>
          9 16 3 4 2.</_></rects>
      <tilted>0</tilted></_>
    <_>
      <rects>
        <_>
          7 6 8 10 -1.</_>
        <_>
          7 6 4 5 2.</_>
        <_>
          11 11 4 5 2.</_></rects>
      <tilted>0</tilted></_>
    <_>
      <rects>
        <_>
          7 8 15 4 -1.</_>
        <_>
          12 8 5 4 3.</_></rects>
      <tilted>0</tilted></_>
    <_>
      <rects>
        <_>
          7 9 11 6 -1.</_>
        <_>
          7 11 11 2 3.</_></rects>
      <tilted>0</tilted></_>
    <_>
      <rects>
        <_>
          7 10 10 5 -1.</_>
        <_>
          12 10 5 5 2.</_></rects>
      <tilted>0</tilted></_>
    <_>
      <rects>
        <_>
          7 13 3 1 -1.</_>
        <_>
          8 13 1 1 3.</_></rects>
      <tilted>0</tilted></_>
    <_>
      <rects>
        <_>
          7 13 6 1 -1.</_>
        <_>
          9 13 2 1 3.</_></rects>
      <tilted>0</tilted></_>
    <_>
      <rects>
        <_>
          7 13 5 8 -1.</_>
        <_>
          7 17 5 4 2.</_></rects>
      <tilted>0</tilted></_>
    <_>
      <rects>
        <_>
          7 14 12 8 -1.</_>
        <_>
          7 14 6 4 2.</_>
        <_>
          13 18 6 4 2.</_></rects>
      <tilted>0</tilted></_>
    <_>
      <rects>
        <_>
          7 16 9 4 -1.</_>
        <_>
          7 18 9 2 2.</_></rects>
      <tilted>0</tilted></_>
    <_>
      <rects>
        <_>
          8 0 12 12 -1.</_>
        <_>
          12 0 4 12 3.</_></rects>
      <tilted>0</tilted></_>
    <_>
      <rects>
        <_>
          8 5 2 18 -1.</_>
        <_>
          8 11 2 6 3.</_></rects>
      <tilted>0</tilted></_>
    <_>
      <rects>
        <_>
          8 7 3 15 -1.</_>
        <_>
          8 12 3 5 3.</_></rects>
      <tilted>0</tilted></_>
    <_>
      <rects>
        <_>
          8 8 6 6 -1.</_>
        <_>
          8 8 3 3 2.</_>
        <_>
          11 11 3 3 2.</_></rects>
      <tilted>0</tilted></_>
    <_>
      <rects>
        <_>
          8 8 3 12 -1.</_>
        <_>
          8 12 3 4 3.</_></rects>
      <tilted>0</tilted></_>
    <_>
      <rects>
        <_>
          8 9 8 6 -1.</_>
        <_>
          8 9 4 3 2.</_>
        <_>
          12 12 4 3 2.</_></rects>
      <tilted>0</tilted></_>
    <_>
      <rects>
        <_>
          8 9 10 4 -1.</_>
        <_>
          8 9 5 2 2.</_>
        <_>
          13 11 5 2 2.</_></rects>
      <tilted>0</tilted></_>
    <_>
      <rects>
        <_>
          8 9 15 3 -1.</_>
        <_>
          13 9 5 3 3.</_></rects>
      <tilted>0</tilted></_>
    <_>
      <rects>
        <_>
          8 9 12 8 -1.</_>
        <_>
          8 9 6 4 2.</_>
        <_>
          14 13 6 4 2.</_></rects>
      <tilted>0</tilted></_>
    <_>
      <rects>
        <_>
          8 10 2 2 -1.</_>
        <_>
          9 10 1 2 2.</_></rects>
      <tilted>0</tilted></_>
    <_>
      <rects>
        <_>
          8 10 2 9 -1.</_>
        <_>
          8 13 2 3 3.</_></rects>
      <tilted>0</tilted></_>
    <_>
      <rects>
        <_>
          8 10 10 6 -1.</_>
        <_>
          8 10 5 3 2.</_>
        <_>
          13 13 5 3 2.</_></rects>
      <tilted>0</tilted></_>
    <_>
      <rects>
        <_>
          8 14 2 1 -1.</_>
        <_>
          9 14 1 1 2.</_></rects>
      <tilted>0</tilted></_>
    <_>
      <rects>
        <_>
          8 14 3 1 -1.</_>
        <_>
          9 14 1 1 3.</_></rects>
      <tilted>0</tilted></_>
    <_>
      <rects>
        <_>
          9 8 6 7 -1.</_>
        <_>
          11 8 2 7 3.</_></rects>
      <tilted>0</tilted></_>
    <_>
      <rects>
        <_>
          9 9 6 5 -1.</_>
        <_>
          12 9 3 5 2.</_></rects>
      <tilted>0</tilted></_>
    <_>
      <rects>
        <_>
          9 9 8 6 -1.</_>
        <_>
          9 12 8 3 2.</_></rects>
      <tilted>0</tilted></_>
    <_>
      <rects>
        <_>
          9 10 2 1 -1.</_>
        <_>
          10 10 1 1 2.</_></rects>
      <tilted>0</tilted></_>
    <_>
      <rects>
        <_>
          9 10 3 2 -1.</_>
        <_>
          9 11 3 1 2.</_></rects>
      <tilted>0</tilted></_>
    <_>
      <rects>
        <_>
          9 10 6 4 -1.</_>
        <_>
          12 10 3 4 2.</_></rects>
      <tilted>0</tilted></_>
    <_>
      <rects>
        <_>
          9 13 2 1 -1.</_>
        <_>
          10 13 1 1 2.</_></rects>
      <tilted>0</tilted></_>
    <_>
      <rects>
        <_>
          9 14 1 2 -1.</_>
        <_>
          9 15 1 1 2.</_></rects>
      <tilted>0</tilted></_>
    <_>
      <rects>
        <_>
          9 15 2 1 -1.</_>
        <_>
          10 15 1 1 2.</_></rects>
      <tilted>0</tilted></_>
    <_>
      <rects>
        <_>
          9 15 12 7 -1.</_>
        <_>
          13 15 4 7 3.</_></rects>
      <tilted>0</tilted></_>
    <_>
      <rects>
        <_>
          9 17 8 6 -1.</_>
        <_>
          9 19 8 2 3.</_></rects>
      <tilted>0</tilted></_>
    <_>
      <rects>
        <_>
          10 0 2 18 -1.</_>
        <_>
          10 6 2 6 3.</_></rects>
      <tilted>0</tilted></_>
    <_>
      <rects>
        <_>
          10 2 6 15 -1.</_>
        <_>
          10 7 6 5 3.</_></rects>
      <tilted>0</tilted></_>
    <_>
      <rects>
        <_>
          10 4 8 2 -1.</_>
        <_>
          10 4 4 1 2.</_>
        <_>
          14 5 4 1 2.</_></rects>
      <tilted>0</tilted></_>
    <_>
      <rects>
        <_>
          10 8 6 10 -1.</_>
        <_>
          10 8 3 5 2.</_>
        <_>
          13 13 3 5 2.</_></rects>
      <tilted>0</tilted></_>
    <_>
      <rects>
        <_>
          10 9 2 2 -1.</_>
        <_>
          10 10 2 1 2.</_></rects>
      <tilted>0</tilted></_>
    <_>
      <rects>
        <_>
          10 9 6 4 -1.</_>
        <_>
          10 9 3 2 2.</_>
        <_>
          13 11 3 2 2.</_></rects>
      <tilted>0</tilted></_>
    <_>
      <rects>
        <_>
          10 10 4 4 -1.</_>
        <_>
          10 10 2 2 2.</_>
        <_>
          12 12 2 2 2.</_></rects>
      <tilted>0</tilted></_>
    <_>
      <rects>
        <_>
          10 10 12 1 -1.</_>
        <_>
          14 10 4 1 3.</_></rects>
      <tilted>0</tilted></_>
    <_>
      <rects>
        <_>
          10 11 3 1 -1.</_>
        <_>
          11 11 1 1 3.</_></rects>
      <tilted>0</tilted></_>
    <_>
      <rects>
        <_>
          10 11 4 1 -1.</_>
        <_>
          12 11 2 1 2.</_></rects>
      <tilted>0</tilted></_>
    <_>
      <rects>
        <_>
          10 11 6 1 -1.</_>
        <_>
          12 11 2 1 3.</_></rects>
      <tilted>0</tilted></_>
    <_>
      <rects>
        <_>
          10 11 6 4 -1.</_>
        <_>
          10 11 3 2 2.</_>
        <_>
          13 13 3 2 2.</_></rects>
      <tilted>0</tilted></_>
    <_>
      <rects>
        <_>
          10 11 6 6 -1.</_>
        <_>
          10 11 3 3 2.</_>
        <_>
          13 14 3 3 2.</_></rects>
      <tilted>0</tilted></_>
    <_>
      <rects>
        <_>
          10 12 6 2 -1.</_>
        <_>
          12 12 2 2 3.</_></rects>
      <tilted>0</tilted></_>
    <_>
      <rects>
        <_>
          10 13 2 2 -1.</_>
        <_>
          10 14 2 1 2.</_></rects>
      <tilted>0</tilted></_>
    <_>
      <rects>
        <_>
          11 1 6 18 -1.</_>
        <_>
          11 7 6 6 3.</_></rects>
      <tilted>0</tilted></_>
    <_>
      <rects>
        <_>
          11 6 4 14 -1.</_>
        <_>
          11 13 4 7 2.</_></rects>
      <tilted>0</tilted></_>
    <_>
      <rects>
        <_>
          11 8 1 6 -1.</_>
        <_>
          11 10 1 2 3.</_></rects>
      <tilted>0</tilted></_>
    <_>
      <rects>
        <_>
          11 11 1 2 -1.</_>
        <_>
          11 12 1 1 2.</_></rects>
      <tilted>0</tilted></_>
    <_>
      <rects>
        <_>
          11 11 3 1 -1.</_>
        <_>
          12 11 1 1 3.</_></rects>
      <tilted>0</tilted></_>
    <_>
      <rects>
        <_>
          11 11 1 3 -1.</_>
        <_>
          11 12 1 1 3.</_></rects>
      <tilted>0</tilted></_>
    <_>
      <rects>
        <_>
          11 11 2 2 -1.</_>
        <_>
          11 11 1 1 2.</_>
        <_>
          12 12 1 1 2.</_></rects>
      <tilted>0</tilted></_>
    <_>
      <rects>
        <_>
          11 12 2 1 -1.</_>
        <_>
          12 12 1 1 2.</_></rects>
      <tilted>0</tilted></_>
    <_>
      <rects>
        <_>
          11 12 3 1 -1.</_>
        <_>
          12 12 1 1 3.</_></rects>
      <tilted>0</tilted></_>
    <_>
      <rects>
        <_>
          11 13 1 2 -1.</_>
        <_>
          11 14 1 1 2.</_></rects>
      <tilted>0</tilted></_>
    <_>
      <rects>
        <_>
          12 0 5 18 -1.</_>
        <_>
          12 6 5 6 3.</_></rects>
      <tilted>0</tilted></_>
    <_>
      <rects>
        <_>
          12 10 1 2 -1.</_>
        <_>
          12 11 1 1 2.</_></rects>
      <tilted>0</tilted></_>
    <_>
      <rects>
        <_>
          12 10 1 3 -1.</_>
        <_>
          12 11 1 1 3.</_></rects>
      <tilted>0</tilted></_>
    <_>
      <rects>
        <_>
          12 10 1 4 -1.</_>
        <_>
          12 12 1 2 2.</_></rects>
      <tilted>0</tilted></_>
    <_>
      <rects>
        <_>
          12 11 2 1 -1.</_>
        <_>
          13 11 1 1 2.</_></rects>
      <tilted>0</tilted></_>
    <_>
      <rects>
        <_>
          12 11 1 2 -1.</_>
        <_>
          12 12 1 1 2.</_></rects>
      <tilted>0</tilted></_>
    <_>
      <rects>
        <_>
          12 11 1 3 -1.</_>
        <_>
          12 12 1 1 3.</_></rects>
      <tilted>0</tilted></_>
    <_>
      <rects>
        <_>
          12 11 4 1 -1.</_>
        <_>
          14 11 2 1 2.</_></rects>
      <tilted>0</tilted></_>
    <_>
      <rects>
        <_>
          13 0 3 18 -1.</_>
        <_>
          13 6 3 6 3.</_></rects>
      <tilted>0</tilted></_>
    <_>
      <rects>
        <_>
          13 3 2 12 -1.</_>
        <_>
          13 7 2 4 3.</_></rects>
      <tilted>0</tilted></_>
    <_>
      <rects>
        <_>
          13 5 4 9 -1.</_>
        <_>
          13 8 4 3 3.</_></rects>
      <tilted>0</tilted></_>
    <_>
      <rects>
        <_>
          13 7 8 6 -1.</_>
        <_>
          13 9 8 2 3.</_></rects>
      <tilted>0</tilted></_>
    <_>
      <rects>
        <_>
          13 9 2 1 -1.</_>
        <_>
          14 9 1 1 2.</_></rects>
      <tilted>0</tilted></_>
    <_>
      <rects>
        <_>
          13 9 1 2 -1.</_>
        <_>
          13 10 1 1 2.</_></rects>
      <tilted>0</tilted></_>
    <_>
      <rects>
        <_>
          13 9 3 1 -1.</_>
        <_>
          14 9 1 1 3.</_></rects>
      <tilted>0</tilted></_>
    <_>
      <rects>
        <_>
          13 9 1 3 -1.</_>
        <_>
          13 10 1 1 3.</_></rects>
      <tilted>0</tilted></_>
    <_>
      <rects>
        <_>
          13 9 2 2 -1.</_>
        <_>
          14 9 1 2 2.</_></rects>
      <tilted>0</tilted></_>
    <_>
      <rects>
        <_>
          13 9 6 3 -1.</_>
        <_>
          16 9 3 3 2.</_></rects>
      <tilted>0</tilted></_>
    <_>
      <rects>
        <_>
          13 10 2 1 -1.</_>
        <_>
          14 10 1 1 2.</_></rects>
      <tilted>0</tilted></_>
    <_>
      <rects>
        <_>
          13 10 3 1 -1.</_>
        <_>
          14 10 1 1 3.</_></rects>
      <tilted>0</tilted></_>
    <_>
      <rects>
        <_>
          13 10 4 4 -1.</_>
        <_>
          15 10 2 4 2.</_></rects>
      <tilted>0</tilted></_>
    <_>
      <rects>
        <_>
          13 13 1 2 -1.</_>
        <_>
          13 14 1 1 2.</_></rects>
      <tilted>0</tilted></_>
    <_>
      <rects>
        <_>
          13 13 2 2 -1.</_>
        <_>
          13 14 2 1 2.</_></rects>
      <tilted>0</tilted></_>
    <_>
      <rects>
        <_>
          14 1 2 18 -1.</_>
        <_>
          14 7 2 6 3.</_></rects>
      <tilted>0</tilted></_>
    <_>
      <rects>
        <_>
          14 4 6 18 -1.</_>
        <_>
          14 4 3 9 2.</_>
        <_>
          17 13 3 9 2.</_></rects>
      <tilted>0</tilted></_>
    <_>
      <rects>
        <_>
          14 7 4 2 -1.</_>
        <_>
          16 7 2 2 2.</_></rects>
      <tilted>0</tilted></_>
    <_>
      <rects>
        <_>
          14 7 2 10 -1.</_>
        <_>
          14 12 2 5 2.</_></rects>
      <tilted>0</tilted></_>
    <_>
      <rects>
        <_>
          14 9 2 1 -1.</_>
        <_>
          15 9 1 1 2.</_></rects>
      <tilted>0</tilted></_>
    <_>
      <rects>
        <_>
          14 9 6 2 -1.</_>
        <_>
          17 9 3 2 2.</_></rects>
      <tilted>0</tilted></_>
    <_>
      <rects>
        <_>
          14 13 1 2 -1.</_>
        <_>
          14 14 1 1 2.</_></rects>
      <tilted>0</tilted></_>
    <_>
      <rects>
        <_>
          14 14 2 1 -1.</_>
        <_>
          15 14 1 1 2.</_></rects>
      <tilted>0</tilted></_>
    <_>
      <rects>
        <_>
          15 7 4 5 -1.</_>
        <_>
          17 7 2 5 2.</_></rects>
      <tilted>0</tilted></_></features></cascade>
</opencv_storage>
